encog,BasicNetwork,java,3.3.0,1,63637713916303
[BASIC]
[BASIC:PARAMS]
[BASIC:NETWORK]
beginTraining=0
connectionLimit=0
contextTargetOffset=0,0,0
contextTargetSize=0,0,0
endTraining=2
hasContext=f
inputCount=4
layerCounts=3,7,5
layerFeedCounts=2,6,4
layerContextCount=0,0,0
layerIndex=0,3,10
output=0,0,1,0,0,0,0,0,0,1,0,0,0,0,1
outputCount=2
weightIndex=0,14,44
weights=0.96732958528882,-0.397010834438721,-0.48641271968377,-0.0637393337569256,0.339972960186266,1.09547947078446,-0.618762329159857,-1.72662618746179,1.9992910054195,0.479580616276515,-0.468676786198952,-2.17595703993667,-0.33271611367111,1.03718337918535,3.71123199732904,6.55506309035749,-14.2872145412996,-7.88250551493873,7.65142214462724,0.536744012118601,4.05097074711399,-1.87085171972793,-11.9048025206468,4.08662013082596,0.201375828984068,0.209135163601498,-0.894821038977618,-0.909667962017742,0.309070566711975,1.42217615620283,2.68692530401519,-3.24301855172742,-1.13491335574299,-0.239054162280488,-0.493382162871036,1.36284322323878,0.294120891402492,-5.20383421458158,1.96838658371296,-1.0945168647553,-9.84624658126646,4.36478619381748,3.53197925267494,2.01256989641312
biasActivation=1,1,1
[BASIC:ACTIVATION]
"ActivationTANH"
"ActivationTANH"
"ActivationLinear"
