encog,BasicNetwork,java,3.3.0,1,63637712674597
[BASIC]
[BASIC:PARAMS]
[BASIC:NETWORK]
beginTraining=0
connectionLimit=0
contextTargetOffset=0,0,0
contextTargetSize=0,0,0
endTraining=2
hasContext=f
inputCount=4
layerCounts=3,7,5
layerFeedCounts=2,6,4
layerContextCount=0,0,0
layerIndex=0,3,10
output=0,0,1,0,0,0,0,0,0,1,0,0,0,0,1
outputCount=2
weightIndex=0,14,44
weights=0.63663348072983,-0.656450969007076,-0.815200799058751,-0.364254148380949,0.824606903747007,0.624960939225257,0.074271322728261,-0.339883606573513,0.943314625855216,-0.388250844268245,-0.262252737424454,-0.0226220120781204,-0.0986248716239934,-0.504698510051099,0.0188482119789573,-0.729735750579152,0.971385667087224,0.322122442220395,-0.58868915382246,-0.69298777528712,-0.898307507810326,-0.748622037353284,-0.772655535383455,0.113975466747757,-0.759028363860691,0.720110601615212,-0.482472995055128,-0.108937047938321,-0.903895968526553,0.190677258740495,0.401532955189018,0.682358329967762,-0.193949357231124,0.703370190087413,-0.133043814978117,-0.0622514547138715,-0.430324271056021,0.171740014651669,-0.545596125324069,-0.473054150805368,-0.860482216747702,-0.526905640739438,-0.420374001106421,-0.12165404163378
biasActivation=1,1,1
[BASIC:ACTIVATION]
"ActivationTANH"
"ActivationTANH"
"ActivationLinear"
