encog,BasicNetwork,java,3.3.0,1,63637715725084
[BASIC]
[BASIC:PARAMS]
[BASIC:NETWORK]
beginTraining=0
connectionLimit=0
contextTargetOffset=0,0,0
contextTargetSize=0,0,0
endTraining=2
hasContext=f
inputCount=4
layerCounts=3,7,5
layerFeedCounts=2,6,4
layerContextCount=0,0,0
layerIndex=0,3,10
output=0,0,1,0,0,0,0,0,0,1,0,0,0,0,1
outputCount=2
weightIndex=0,14,44
weights=0.676076874835457,-0.797895239310948,0.559010407827606,-0.0946647669859848,0.793391116011094,0.975391843910994,-0.000333297213898867,-0.109687051218133,0.98058365295144,0.223523761261001,-0.589351538667337,0.0743612316759778,-0.140867400577701,1.01953102569748,-0.0942083433219175,0.52800182169887,-0.147012368436728,0.117687976571232,-0.765313926049186,-4.0619615758647,-2.36867938825923,19.0066607937042,5.35735966124762,-8.32283286754461,-0.335099352129265,0.00650935759914332,0.607399715695958,-0.783648031059139,-0.711120758652078,0.809020449391031,3.79685390280125,-4.02203715426187,-10.6011082776648,6.91295645443737,-2.1199123809167,-45.0770934647207,56.8312725539127,6.08264973647324,13.6859710979273,0.128997734178593,-0.666499050614055,0.819303563173311,0.331749689415161,0.34858600652684
biasActivation=1,1,1
[BASIC:ACTIVATION]
"ActivationTANH"
"ActivationTANH"
"ActivationLinear"
