encog,BasicNetwork,java,3.3.0,1,63637715438335
[BASIC]
[BASIC:PARAMS]
[BASIC:NETWORK]
beginTraining=0
connectionLimit=0
contextTargetOffset=0,0,0
contextTargetSize=0,0,0
endTraining=2
hasContext=f
inputCount=4
layerCounts=3,7,5
layerFeedCounts=2,6,4
layerContextCount=0,0,0
layerIndex=0,3,10
output=0,0,1,0,0,0,0,0,0,1,0,0,0,0,1
outputCount=2
weightIndex=0,14,44
weights=0.6470017480822,-0.123850082508643,-0.224795233854901,-0.126143284671799,-1.30242827817193,0.0856483739085406,-0.558960767442169,-0.983187327828768,1.5701403087116,3.43960962916346,1.455253071004,0.21766813599517,-1.03605618510369,-0.417012003263094,11.367981292867,8.85926415540458,-58.0709752701486,-20.4155236714468,26.6303962837159,-1.4433590647319,3.81247316230708,-5.65792278122293,5.0134227097832,1.52266850284921,-0.345079759275538,-1.80839043711234,1.33821431571233,1.00963987250785,-0.54130272303573,-0.365433870627594,3.552891630246,5.98434052892635,-9.67858013342456,0.546538267604701,-6.17546304186618,5.54998011133448,-14.472260406044,-4.10418328658254,-15.6710958840074,-5.37277280143507,2.34222531226796,6.75859695505756,-0.532616594161351,-1.16958252599345
biasActivation=1,1,1
[BASIC:ACTIVATION]
"ActivationTANH"
"ActivationTANH"
"ActivationLinear"
